{
  "config": {
    "ldim": 3,
    "dim": 4,
    "num_heads": 2,
    "num_layers": 1,
    "ffn_dim": 8,
    "max_period": 10000.0
  },
  "conditioner": {
    "n_bins": 48,
    "embed_weight": [
      [
        0.026500368490815163,
        -0.16465485095977783,
        -0.13701306283473969,
        -0.09233291447162628
      ],
      [
        0.14501066505908966,
        -0.1254252940416336,
        -0.03330886363983154,
        -0.14785149693489075
      ],
      [
        -0.1276744157075882,
        -0.1543194055557251,
        0.1476544886827469,
        -0.11035948246717453
      ],
      [
        -0.17618368566036224,
        -0.01689159870147705,
        -0.16286468505859375,
        -0.1584995537996292
      ],
      [
        -0.06252215057611465,
        -0.09325392544269562,
        -0.15417273342609406,
        -0.12067456543445587
      ],
      [
        -0.1490548700094223,
        0.044890809804201126,
        -0.036502908915281296,
        -0.16861622035503387
      ],
      [
        0.050527334213256836,
        -0.14601007103919983,
        0.14164665341377258,
        -0.19847698509693146
      ],
      [
        -0.14608588814735413,
        -0.03603775426745415,
        -0.14707942306995392,
        0.10294337570667267
      ],
      [
        -0.11318697780370712,
        0.005544829647988081,
        0.18391220271587372,
        0.006616640370339155
      ],
      [
        0.10618491470813751,
        -0.1869555562734604,
        0.12331952899694443,
        0.0967390313744545
      ],
      [
        -0.07403600215911865,
        -0.041355133056640625,
        -0.0382830873131752,
        -0.18189166486263275
      ],
      [
        0.09799738228321075,
        0.011676574125885963,
        -0.10993605107069016,
        0.134235218167305
      ],
      [
        -0.03858940675854683,
        -0.06168336793780327,
        0.11802222579717636,
        -0.14732496440410614
      ],
      [
        -0.17654316127300262,
        -0.16174404323101044,
        -0.10154881328344345,
        0.16118966042995453
      ],
      [
        -0.02478764019906521,
        0.06992261856794357,
        -0.11968956142663956,
        0.0068551539443433285
      ],
      [
        0.1884186714887619,
        0.12443854659795761,
        -0.013599539175629616,
        -0.04784557968378067
      ],
      [
        -0.05857358127832413,
        -0.06904172897338867,
        0.013805962167680264,
        0.1684843748807907
      ],
      [
        -0.023012852296233177,
        0.033423423767089844,
        -0.13366691768169403,
        0.18468809127807617
      ],
      [
        0.03139462694525719,
        0.1838352531194687,
        0.15163742005825043,
        -0.12687967717647552
      ],
      [
        -0.14938704669475555,
        0.1739630550146103,
        -0.07035491615533829,
        0.06296060234308243
      ],
      [
        -0.16057343780994415,
        0.05247075483202934,
        -0.12652400135993958,
        0.028124285861849785
      ],
      [
        0.1993747055530548,
        -0.10334310680627823,
        0.09297587722539902,
        0.13489027321338654
      ],
      [
        0.046066999435424805,
        -0.011024069972336292,
        0.04189160093665123,
        -0.04502582550048828
      ],
      [
        -0.1964322179555893,
        0.13735751807689667,
        -0.047077443450689316,
        0.18899936974048615
      ],
      [
        0.1729583591222763,
        -0.02989327907562256,
        0.13647837936878204,
        -0.04583602026104927
      ],
      [
        -0.002707242965698242,
        -0.16897271573543549,
        0.19456318020820618,
        0.10573816299438477
      ],
      [
        -0.1697695106267929,
        0.07247667759656906,
        -0.051401376724243164,
        0.1273476928472519
      ],
      [
        0.015698982402682304,
        -0.050284624099731445,
        -0.026443196460604668,
        -0.03601370006799698
      ],
      [
        -0.07548611611127853,
        -0.13070058822631836,
        -0.06373455375432968,
        0.028375720605254173
      ],
      [
        -0.1780214160680771,
        0.16124068200588226,
        -0.00854482688009739,
        0.14658020436763763
      ],
      [
        -0.11226832866668701,
        0.09880369156599045,
        0.059548329561948776,
        -0.04947228357195854
      ],
      [
        -0.08220799267292023,
        0.06354472786188126,
        -0.10736675560474396,
        -0.19833694398403168
      ],
      [
        0.10595100373029709,
        0.15391306579113007,
        0.09029021114110947,
        -0.16138441860675812
      ],
      [
        -0.002405619714409113,
        0.02089669741690159,
        0.18121837079524994,
        -0.13247595727443695
      ],
      [
        0.022069787606596947,
        -0.011960935778915882,
        0.1323000192642212,
        -0.1768626719713211
      ],
      [
        0.09778747707605362,
        0.1122443899512291,
        0.1760055273771286,
        0.13868029415607452
      ],
      [
        -0.10302026569843292,
        -0.08437466621398926,
        -0.08928709477186203,
        0.04992659017443657
      ],
      [
        -0.0010289907222613692,
        -0.1535719633102417,
        -0.19517488777637482,
        -0.01873934268951416
      ],
      [
        -0.1945538967847824,
        -0.045848943293094635,
        -0.01278080977499485,
        -0.002162933349609375
      ],
      [
        -0.18666522204875946,
        0.09361260384321213,
        0.041166018694639206,
        0.032479383051395416
      ],
      [
        -0.026786137372255325,
        0.15683825314044952,
        0.15945051610469818,
        -0.12160374969244003
      ],
      [
        0.05306439474225044,
        -0.14289848506450653,
        -0.12601955235004425,
        -0.08351554721593857
      ],
      [
        -0.06820414215326309,
        0.1907964050769806,
        0.18420203030109406,
        -0.0719582587480545
      ],
      [
        0.11230375617742538,
        0.19552162289619446,
        0.10067997127771378,
        0.1288197785615921
      ],
      [
        0.1438264399766922,
        0.16091454029083252,
        0.009682155214250088,
        0.1326124519109726
      ],
      [
        0.14678044617176056,
        -0.07082214206457138,
        -0.11587333679199219,
        0.033107638359069824
      ],
      [
        -0.12726402282714844,
        0.042665958404541016,
        -0.0777416005730629,
        -0.13626816868782043
      ],
      [
        0.16866469383239746,
        0.1891506463289261,
        0.11813373863697052,
        0.18402783572673798
      ],
      [
        0.015437341295182705,
        0.05805232748389244,
        -0.14225418865680695,
        -0.020366644486784935
      ]
    ],
    "tokens": [
      [
        1,
        2,
        3,
        4
      ]
    ],
    "text_embeddings": [
      [
        [
          0.14501066505908966,
          -0.1254252940416336,
          -0.03330886363983154,
          -0.14785149693489075
        ],
        [
          -0.1276744157075882,
          -0.1543194055557251,
          0.1476544886827469,
          -0.11035948246717453
        ],
        [
          -0.17618368566036224,
          -0.01689159870147705,
          -0.16286468505859375,
          -0.1584995537996292
        ],
        [
          -0.06252215057611465,
          -0.09325392544269562,
          -0.15417273342609406,
          -0.12067456543445587
        ]
      ]
    ]
  },
  "input_linear_weight": [
    [
      0.04008389636874199,
      0.09719860553741455,
      0.09674512594938278
    ],
    [
      -0.05166327953338623,
      -0.06654473394155502,
      0.06115572527050972
    ],
    [
      -0.010201978497207165,
      0.06958099454641342,
      -0.07702039927244186
    ],
    [
      0.034340452402830124,
      -0.029029225930571556,
      -0.013742292299866676
    ]
  ],
  "bos_emb": [
    -0.08994324505329132,
    0.02533888816833496,
    -0.07761231809854507
  ],
  "emb_mean": [
    0.0,
    0.0,
    0.0
  ],
  "emb_std": [
    1.0,
    1.0,
    1.0
  ],
  "transformer": {
    "layers": [
      {
        "self_attn": {
          "in_proj": {
            "weight": [
              [
                -0.08553057909011841,
                -0.07106906175613403,
                0.08695574849843979,
                -0.045894600450992584
              ],
              [
                0.04476721212267876,
                0.032405246049165726,
                0.013221812434494495,
                0.01848306693136692
              ],
              [
                -0.018095970153808594,
                -0.032623983919620514,
                0.01208947878330946,
                -0.0927792340517044
              ],
              [
                0.05028454214334488,
                -0.008632373996078968,
                -0.07077745348215103,
                0.09578337520360947
              ],
              [
                -0.07848989218473434,
                -0.03539656475186348,
                0.0160553939640522,
                0.06233072280883789
              ],
              [
                -0.010505223646759987,
                -0.011431396007537842,
                0.07264639437198639,
                0.08115287870168686
              ],
              [
                -0.006399917881935835,
                -0.05907716974616051,
                -0.07490819692611694,
                0.03555157408118248
              ],
              [
                -0.06642341613769531,
                0.032386552542448044,
                0.0017595529789105058,
                0.0406506322324276
              ],
              [
                -0.07270935922861099,
                -0.08789432048797607,
                -0.043154943734407425,
                -0.04099022224545479
              ],
              [
                0.09799374639987946,
                -0.006661152932792902,
                -0.023377800360322,
                -0.060429491102695465
              ],
              [
                -0.02684011496603489,
                0.02865539863705635,
                -0.056157827377319336,
                0.0790848657488823
              ],
              [
                -0.06470353901386261,
                -0.09512815624475479,
                0.04942113161087036,
                0.053916193544864655
              ]
            ]
          },
          "out_proj": {
            "weight": [
              [
                0.09729080647230148,
                -0.08883966505527496,
                0.01393119152635336,
                0.02290736511349678
              ],
              [
                -0.019012022763490677,
                -0.02497803047299385,
                0.031553830951452255,
                0.010698330588638783
              ],
              [
                0.005560076329857111,
                0.030135203152894974,
                0.0671071782708168,
                0.0004919052007608116
              ],
              [
                0.04193481430411339,
                -0.022799765691161156,
                0.018723202869296074,
                0.06552176922559738
              ]
            ]
          }
        },
        "norm1": {
          "gamma": [
            1.0863544940948486,
            1.008194923400879,
            0.9290459156036377,
            1.0601621866226196
          ],
          "beta": [
            0.03630150482058525,
            -0.04295456409454346,
            0.0018257141346111894,
            0.03519585728645325
          ]
        },
        "norm2": {
          "gamma": [
            1.0028764009475708,
            0.9037495851516724,
            1.0989422798156738,
            0.933485209941864
          ],
          "beta": [
            -0.004890096373856068,
            -0.04494533687829971,
            -0.04253784567117691,
            0.01427007932215929
          ]
        },
        "linear1": {
          "weight": [
            [
              0.03754553943872452,
              -0.04374829679727554,
              -0.09434985369443893,
              -0.01901986636221409
            ],
            [
              0.084986113011837,
              0.06951051950454712,
              0.015334404073655605,
              0.03038698434829712
            ],
            [
              -0.05104733631014824,
              -0.050931621342897415,
              0.0026314021088182926,
              0.06367694586515427
            ],
            [
              0.09842836111783981,
              0.05911015346646309,
              -0.09713375568389893,
              0.06080498918890953
            ],
            [
              0.0034463645424693823,
              -0.05177948623895645,
              -0.09763702005147934,
              0.031151188537478447
            ],
            [
              -0.08036541193723679,
              0.015354466624557972,
              0.09546712785959244,
              -0.06839469820261002
            ],
            [
              0.03481525182723999,
              -0.07258673757314682,
              -0.030654752627015114,
              0.07666468620300293
            ],
            [
              0.043931033462285995,
              0.028464769944548607,
              -0.05788610130548477,
              0.09150207042694092
            ]
          ]
        },
        "linear2": {
          "weight": [
            [
              -0.05950693041086197,
              0.07086317986249924,
              -0.07628455013036728,
              -0.07665206491947174,
              0.05411914736032486,
              0.06899811327457428,
              -0.074659563601017,
              0.052522506564855576
            ],
            [
              0.013064277358353138,
              0.03688863664865494,
              0.026421893388032913,
              0.010757899843156338,
              0.04033771902322769,
              -0.0735916867852211,
              0.05306568369269371,
              -0.0229936596006155
            ],
            [
              -0.058138955384492874,
              0.04296625778079033,
              0.08024714142084122,
              0.07795556634664536,
              0.08099658787250519,
              -0.08477536588907242,
              -0.017441941425204277,
              0.05906963348388672
            ],
            [
              -0.030652059242129326,
              0.08865481615066528,
              -0.03203025087714195,
              0.08181699365377426,
              0.014577400870621204,
              -0.008810723200440407,
              -0.011986637488007545,
              0.025307847186923027
            ]
          ]
        }
      }
    ]
  },
  "out_norm": {
    "gamma": [
      0.9451151490211487,
      0.9008578062057495,
      0.9348914623260498,
      0.993598997592926
    ],
    "beta": [
      -0.040821488946676254,
      -0.011227983050048351,
      -0.014868944883346558,
      0.003416556166484952
    ]
  },
  "out_eos": {
    "weight": [
      [
        0.08400608599185944,
        -0.009560192003846169,
        0.007861805148422718,
        -0.0986528992652893
      ]
    ],
    "bias": [
      0.00774002680554986
    ]
  },
  "sequence": [
    [
      [
        NaN,
        0.10000000149011612,
        -0.20000000298023224
      ],
      [
        0.05000000074505806,
        -0.10000000149011612,
        0.20000000298023224
      ]
    ]
  ],
  "latent": [
    [
      -7.823049068450928,
      -4.089415073394775,
      8.856886863708496
    ]
  ],
  "eos": [
    [
      false
    ]
  ]
}