{
  "config": {
    "channels": 1,
    "dimension": 4,
    "n_filters": 2,
    "n_residual_layers": 1,
    "ratios": [
      2
    ],
    "kernel_size": 3,
    "last_kernel_size": 3,
    "residual_kernel_size": 3,
    "dilation_base": 2,
    "pad_mode": "constant",
    "compress": 2
  },
  "input": [
    [
      [
        0.10774365812540054,
        0.4118267297744751,
        -2.1577930450439453,
        -0.14082470536231995,
        0.06009257957339287,
        -2.5074737071990967,
        2.1395304203033447,
        1.8448976278305054
      ]
    ]
  ],
  "layers": [
    {
      "kind": "conv1d",
      "config": {
        "kernel_size": 3,
        "stride": 1,
        "dilation": 1,
        "padding": 0,
        "pad_mode": "constant"
      },
      "weight": [
        [
          [
            -0.004322517663240433,
            0.3097158372402191,
            -0.4751853346824646
          ]
        ],
        [
          [
            -0.4248946011066437,
            -0.2223689705133438,
            0.15482072532176971
          ]
        ]
      ],
      "bias": [
        -0.011439144611358643,
        0.45777493715286255
      ]
    },
    {
      "kind": "resblock",
      "convs": [
        {
          "config": {
            "kernel_size": 3,
            "stride": 1,
            "dilation": 1,
            "padding": 0,
            "pad_mode": "constant"
          },
          "weight": [
            [
              [
                -0.036229606717824936,
                0.1080276295542717,
                -0.1233779713511467
              ],
              [
                -0.08024748414754868,
                -0.39001941680908203,
                -0.2703755497932434
              ]
            ]
          ],
          "bias": [
            -0.16828937828540802
          ]
        },
        {
          "config": {
            "kernel_size": 1,
            "stride": 1,
            "dilation": 1,
            "padding": 0,
            "pad_mode": "constant"
          },
          "weight": [
            [
              [
                0.03704357147216797
              ]
            ],
            [
              [
                0.39533519744873047
              ]
            ]
          ],
          "bias": [
            0.6000227928161621,
            -0.677941083908081
          ]
        }
      ]
    },
    {
      "kind": "elu"
    },
    {
      "kind": "conv1d",
      "config": {
        "kernel_size": 4,
        "stride": 2,
        "dilation": 1,
        "padding": 0,
        "pad_mode": "constant"
      },
      "weight": [
        [
          [
            -0.15395936369895935,
            0.12841664254665375,
            0.29358646273612976,
            -0.07276134938001633
          ],
          [
            0.26456815004348755,
            -0.05698692053556442,
            0.037410933524370193,
            0.3201341927051544
          ]
        ],
        [
          [
            -0.32798099517822266,
            -0.22257526218891144,
            -0.08950743079185486,
            -0.13781508803367615
          ],
          [
            0.30547040700912476,
            -0.22916610538959503,
            -0.16275224089622498,
            -0.24700669944286346
          ]
        ],
        [
          [
            -0.33112430572509766,
            -0.20638342201709747,
            0.30391380190849304,
            0.15776202082633972
          ],
          [
            0.17135761678218842,
            0.01859392412006855,
            -0.18126098811626434,
            0.05981581658124924
          ]
        ],
        [
          [
            -0.33011093735694885,
            -0.2554657459259033,
            -0.18226736783981323,
            0.22307024896144867
          ],
          [
            0.20729584991931915,
            -0.15679916739463806,
            -0.01275704987347126,
            0.22611884772777557
          ]
        ]
      ],
      "bias": [
        0.35147911310195923,
        0.14031903445720673,
        0.04776253551244736,
        0.23705270886421204
      ]
    },
    {
      "kind": "elu"
    },
    {
      "kind": "conv1d",
      "config": {
        "kernel_size": 3,
        "stride": 1,
        "dilation": 1,
        "padding": 0,
        "pad_mode": "constant"
      },
      "weight": [
        [
          [
            -0.16997258365154266,
            0.053792886435985565,
            -0.22381141781806946
          ],
          [
            -0.20007672905921936,
            -0.14912483096122742,
            0.13061770796775818
          ],
          [
            0.116093710064888,
            -0.17099744081497192,
            0.08721080422401428
          ],
          [
            0.15847456455230713,
            -0.0364358127117157,
            0.011022062040865421
          ]
        ],
        [
          [
            0.06688738614320755,
            0.179087296128273,
            0.2771841585636139
          ],
          [
            -0.2224598526954651,
            -0.10579069703817368,
            0.11345218122005463
          ],
          [
            0.23918160796165466,
            0.2512072026729584,
            0.2547144591808319
          ],
          [
            0.0574505478143692,
            -0.2510268986225128,
            0.026555946096777916
          ]
        ],
        [
          [
            -0.1805967092514038,
            -0.26903197169303894,
            0.2564856708049774
          ],
          [
            0.219496950507164,
            -0.28796151280403137,
            0.054031915962696075
          ],
          [
            -0.04863021522760391,
            -0.04750471189618111,
            -0.1321430206298828
          ],
          [
            0.111011803150177,
            -0.17098329961299896,
            0.10582580417394638
          ]
        ],
        [
          [
            0.14598535001277924,
            0.20665432512760162,
            0.10793884843587875
          ],
          [
            -0.28571194410324097,
            -0.1872626543045044,
            0.14413982629776
          ],
          [
            0.060420095920562744,
            -0.22519084811210632,
            -0.16622476279735565
          ],
          [
            0.27157092094421387,
            0.1945144683122635,
            -0.12586961686611176
          ]
        ]
      ],
      "bias": [
        -0.07265514135360718,
        -0.27499139308929443,
        -0.005188686773180962,
        -0.21738937497138977
      ]
    }
  ],
  "output": [
    [
      [
        -0.109241783618927,
        -0.2958481013774872,
        -0.14494967460632324,
        -0.24663043022155762
      ],
      [
        -0.07176294922828674,
        0.08238053321838379,
        -0.06844934821128845,
        -0.08538952469825745
      ],
      [
        0.07757636159658432,
        -0.09029322862625122,
        -0.2211487740278244,
        0.23989279568195343
      ],
      [
        -0.22759053111076355,
        -0.16788409650325775,
        -0.12000657618045807,
        0.05158492922782898
      ]
    ]
  ]
}