{
  "config": {
    "channels": 1,
    "dimension": 4,
    "n_filters": 2,
    "n_residual_layers": 1,
    "ratios": [
      2
    ],
    "kernel_size": 3,
    "last_kernel_size": 3,
    "residual_kernel_size": 3,
    "dilation_base": 2,
    "pad_mode": "constant",
    "compress": 2
  },
  "input": [
    [
      [
        -0.109241783618927,
        -0.2958481013774872,
        -0.14494967460632324,
        -0.24663043022155762
      ],
      [
        -0.07176294922828674,
        0.08238053321838379,
        -0.06844934821128845,
        -0.08538952469825745
      ],
      [
        0.07757636159658432,
        -0.09029322862625122,
        -0.2211487740278244,
        0.23989279568195343
      ],
      [
        -0.22759053111076355,
        -0.16788409650325775,
        -0.12000657618045807,
        0.05158492922782898
      ]
    ]
  ],
  "layers": [
    {
      "kind": "conv1d",
      "config": {
        "kernel_size": 3,
        "stride": 1,
        "dilation": 1,
        "padding": 0,
        "pad_mode": "constant"
      },
      "weight": [
        [
          [
            -0.2226714938879013,
            -0.01590588688850403,
            0.04334314167499542
          ],
          [
            -0.1182212084531784,
            0.17129334807395935,
            -0.1756701022386551
          ],
          [
            0.26193517446517944,
            0.19782902300357819,
            -0.2434348165988922
          ],
          [
            -0.07184671610593796,
            0.013025779277086258,
            0.04211801290512085
          ]
        ],
        [
          [
            0.06846631318330765,
            0.11328428238630295,
            0.017291687428951263
          ],
          [
            -0.1408528983592987,
            0.1365979015827179,
            -0.27691128849983215
          ],
          [
            -0.1710996776819229,
            -0.07226400077342987,
            -0.1406175047159195
          ],
          [
            -0.10098819434642792,
            -0.23660439252853394,
            -0.061405573040246964
          ]
        ],
        [
          [
            0.061706170439720154,
            -0.18806196749210358,
            -0.014814622700214386
          ],
          [
            0.2066483348608017,
            -0.02967587485909462,
            0.008022921159863472
          ],
          [
            -0.024903686717152596,
            0.05842246860265732,
            0.18355104327201843
          ],
          [
            0.2734464108943939,
            0.18332484364509583,
            0.2740720808506012
          ]
        ],
        [
          [
            -0.02087746188044548,
            -0.2593230903148651,
            -0.13685430586338043
          ],
          [
            0.19656039774417877,
            -0.001871331362053752,
            -0.1434849202632904
          ],
          [
            -0.2212151437997818,
            -0.27015721797943115,
            -0.24364417791366577
          ],
          [
            -0.05855392664670944,
            0.1583111733198166,
            0.15606963634490967
          ]
        ]
      ],
      "bias": [
        -0.278407484292984,
        0.18007035553455353,
        -0.22589100897312164,
        -0.06102889031171799
      ]
    },
    {
      "kind": "elu"
    },
    {
      "kind": "conv_transpose",
      "config": {
        "kernel_size": 4,
        "stride": 2,
        "dilation": 1,
        "padding": 0
      },
      "weight": [
        [
          [
            -0.14335621893405914,
            -0.06809978187084198,
            -0.06941762566566467,
            -0.31726109981536865
          ],
          [
            -0.3052713871002197,
            -0.055323850363492966,
            0.004572216421365738,
            -0.16061042249202728
          ]
        ],
        [
          [
            0.1331832855939865,
            -0.3182186782360077,
            -0.023860342800617218,
            0.31092172861099243
          ],
          [
            -0.14421159029006958,
            0.31925979256629944,
            0.12804068624973297,
            -0.3190681040287018
          ]
        ],
        [
          [
            0.22369228303432465,
            -0.04079810529947281,
            -0.15782864391803741,
            0.2827201187610626
          ],
          [
            -0.2857047915458679,
            0.03793802112340927,
            -0.07402301579713821,
            0.25247693061828613
          ]
        ],
        [
          [
            0.09869249165058136,
            0.16988429427146912,
            0.12486054003238678,
            -0.08502064645290375
          ],
          [
            -0.07435420155525208,
            -0.29135677218437195,
            0.19157083332538605,
            0.28071364760398865
          ]
        ]
      ],
      "bias": [
        0.24191001057624817,
        -0.2493888884782791
      ]
    },
    {
      "kind": "resblock",
      "convs": [
        {
          "config": {
            "kernel_size": 3,
            "stride": 1,
            "dilation": 1,
            "padding": 0,
            "pad_mode": "constant"
          },
          "weight": [
            [
              [
                0.01820782944560051,
                -0.28778815269470215,
                -0.22473423182964325
              ],
              [
                -0.23788852989673615,
                0.13951683044433594,
                -0.2432805448770523
              ]
            ]
          ],
          "bias": [
            -0.008906837552785873
          ]
        },
        {
          "config": {
            "kernel_size": 1,
            "stride": 1,
            "dilation": 1,
            "padding": 0,
            "pad_mode": "constant"
          },
          "weight": [
            [
              [
                0.04206812381744385
              ]
            ],
            [
              [
                0.6446230411529541
              ]
            ]
          ],
          "bias": [
            -0.7559200525283813,
            -0.6865122318267822
          ]
        }
      ]
    },
    {
      "kind": "elu"
    },
    {
      "kind": "conv1d",
      "config": {
        "kernel_size": 3,
        "stride": 1,
        "dilation": 1,
        "padding": 0,
        "pad_mode": "constant"
      },
      "weight": [
        [
          [
            -0.23705409467220306,
            0.28574663400650024,
            -0.14675097167491913
          ],
          [
            0.3443528413772583,
            0.14762566983699799,
            0.051694855093955994
          ]
        ]
      ],
      "bias": [
        -0.003039010101929307
      ]
    }
  ],
  "output": [
    [
      [
        0.02666904591023922,
        -0.16835510730743408,
        -0.28807902336120605,
        -0.2745341956615448,
        -0.28555482625961304,
        -0.30200397968292236,
        -0.29937541484832764,
        -0.28884559869766235
      ]
    ]
  ]
}