{
  "config": {
    "d_model": 4,
    "num_heads": 2,
    "ffn_dim": 8,
    "causal": true
  },
  "weights": {
    "norm1": {
      "gamma": [
        0.18905338644981384,
        -0.5227484703063965,
        -0.41306355595588684,
        -2.44146728515625
      ],
      "beta": [
        1.7997074127197266,
        1.1441658735275269,
        -0.32542282342910767,
        0.7738065719604492
      ]
    },
    "norm2": {
      "gamma": [
        0.28121066093444824,
        -0.5538228154182434,
        0.9775674343109131,
        -0.310556560754776
      ],
      "beta": [
        -0.32882389426231384,
        -0.7921467423439026,
        0.45495808124542236,
        -0.09919805079698563
      ]
    },
    "qkv": {
      "weight": [
        [
          0.5452887415885925,
          -0.6071857213973999,
          0.12682785093784332,
          -0.892274022102356,
          0.8414649963378906,
          0.18803508579730988,
          0.3305709958076477,
          0.41050392389297485,
          -1.0107574462890625,
          0.7831810116767883,
          2.0567028522491455,
          -1.6384425163269043
        ],
        [
          -1.7294114828109741,
          -1.5048314332962036,
          0.8414589166641235,
          0.1287156641483307,
          1.0783424377441406,
          0.7224308848381042,
          0.21057181060314178,
          0.28403815627098083,
          -0.16976049542427063,
          0.8684602379798889,
          -1.129715919494629,
          -0.4218588173389435
        ],
        [
          0.2429388463497162,
          1.80142080783844,
          -0.7644641399383545,
          -1.079060435295105,
          -0.5632871985435486,
          0.9692721962928772,
          -0.23500551283359528,
          1.3243470191955566,
          -1.8725295066833496,
          1.1285231113433838,
          1.034866213798523,
          -1.4186656475067139
        ],
        [
          0.1535818874835968,
          1.2157576084136963,
          0.08791904151439667,
          0.9997014403343201,
          2.374886989593506,
          0.27393224835395813,
          -0.28038230538368225,
          -0.7710521817207336,
          0.6480646133422852,
          -0.19673006236553192,
          -0.17874637246131897,
          -0.10525977611541748
        ]
      ],
      "bias": [
        0.6498696804046631,
        -1.0663396120071411,
        -1.529876470565796,
        -2.4338767528533936,
        1.1986708641052246,
        0.07379335910081863,
        1.5101194381713867,
        -0.008956298232078552,
        -0.7421554327011108,
        0.4779292941093445,
        -0.07658841460943222,
        -1.2541866302490234
      ]
    },
    "out_proj": {
      "weight": [
        [
          -0.885066568851471,
          1.7667793035507202,
          0.35435059666633606,
          0.41638654470443726
        ],
        [
          -0.2765517234802246,
          -0.689719557762146,
          0.8916558027267456,
          -0.10462645441293716
        ],
        [
          -0.7591081261634827,
          -0.13412852585315704,
          -0.9056060314178467,
          0.19004583358764648
        ],
        [
          1.129227638244629,
          -0.8360851407051086,
          1.428544044494629,
          -0.6676199436187744
        ]
      ],
      "bias": [
        0.15341216325759888,
        -0.836386501789093,
        -0.22223517298698425,
        0.04740441218018532
      ]
    },
    "ffn_in": {
      "weight": [
        [
          -0.4346849322319031,
          -0.7028878927230835,
          -0.6778861880302429,
          -0.8211599588394165,
          -1.570080041885376,
          -0.26296961307525635,
          0.4011582136154175,
          0.9084019064903259
        ],
        [
          0.6471027135848999,
          2.45733642578125,
          0.31868162751197815,
          -0.4563339054584503,
          1.871634602546692,
          -1.0472180843353271,
          0.9684776067733765,
          -0.9551447629928589
        ],
        [
          0.3541116714477539,
          -1.968396782875061,
          0.899273693561554,
          -0.15824761986732483,
          -0.9676814675331116,
          1.6784189939498901,
          0.7653546929359436,
          0.04580783471465111
        ],
        [
          -0.7454434037208557,
          -0.04336259141564369,
          -0.16392876207828522,
          0.7247765064239502,
          0.7980751991271973,
          -0.6677563786506653,
          -0.5493705868721008,
          -0.5320653319358826
        ]
      ],
      "bias": [
        -1.349317193031311,
        -0.5915749073028564,
        -0.09240806847810745,
        0.690951943397522,
        1.3203794956207275,
        -0.8083458542823792,
        0.5509765148162842,
        -0.4444568157196045
      ]
    },
    "ffn_out": {
      "weight": [
        [
          2.0751876831054688,
          -0.04872354492545128,
          0.5021269917488098,
          -0.9361621737480164
        ],
        [
          -0.8106894493103027,
          0.2016953080892563,
          -0.3840544521808624,
          0.35328859090805054
        ],
        [
          -1.561824083328247,
          0.6620049476623535,
          -0.8994803428649902,
          1.7224234342575073
        ],
        [
          -0.2884672284126282,
          1.0972650051116943,
          -1.3949832916259766,
          0.42894625663757324
        ],
        [
          -0.8880296349525452,
          -0.4868890643119812,
          0.024596381932497025,
          -0.3170749545097351
        ],
        [
          0.2642556130886078,
          0.74765545129776,
          0.652782142162323,
          -0.08748148381710052
        ],
        [
          -1.3634305000305176,
          -0.8046461343765259,
          -0.1957562118768692,
          -2.121825933456421
        ],
        [
          0.7520805597305298,
          -0.23963819444179535,
          -0.2513192892074585,
          0.9483762383460999
        ]
      ],
      "bias": [
        0.6679105162620544,
        0.22100096940994263,
        -1.0013335943222046,
        0.31042158603668213
      ]
    }
  },
  "input": [
    [
      [
        0.3461775481700897,
        -0.884773313999176,
        1.0433118343353271,
        0.5078871846199036
      ],
      [
        -1.969624400138855,
        0.1219494491815567,
        -1.2646980285644531,
        1.136315107345581
      ],
      [
        0.8070279359817505,
        -1.103590726852417,
        -0.8848726749420166,
        0.10185328125953674
      ],
      [
        -0.23881082236766815,
        1.5252031087875366,
        0.7409738302230835,
        -0.28242725133895874
      ]
    ]
  ],
  "output": [
    [
      [
        -4.256672141546737,
        -2.210060324301332,
        -5.566500461305961,
        2.9548227568341106
      ],
      [
        -4.578774995906374,
        -6.365501943594933,
        -8.37960534056541,
        1.99593716751643
      ],
      [
        -2.2230246108626153,
        -8.011778838837733,
        -7.855693124739343,
        0.4182587627850777
      ],
      [
        -5.778325261508986,
        6.1125805138451526,
        -8.898652095617196,
        4.332369128533903
      ]
    ]
  ]
}