{
  "config": {
    "ldim": 4,
    "dim": 4,
    "num_heads": 2,
    "num_layers": 1,
    "ffn_dim": 8,
    "max_period": 10000.0
  },
  "flow_net": {
    "config": {
      "in_channels": 4,
      "model_channels": 4,
      "out_channels": 4,
      "cond_channels": 4,
      "num_res_blocks": 2,
      "num_time_conds": 2,
      "frequency_embedding_size": 8,
      "max_period": 10.0
    },
    "weights": {
      "input_proj": {
        "weight": [
          [
            -0.2910332679748535,
            0.1564902663230896,
            -0.49229419231414795,
            -0.1585836410522461
          ],
          [
            0.06890898942947388,
            -0.22857391834259033,
            -0.36228471994400024,
            -0.11871170997619629
          ],
          [
            0.21161335706710815,
            -0.3321616053581238,
            -0.14244449138641357,
            -0.41275590658187866
          ],
          [
            -0.4281749725341797,
            0.2530333399772644,
            0.3465192914009094,
            -0.2679893374443054
          ]
        ],
        "bias": [
          0.2675071358680725,
          -0.14247530698776245,
          0.26057004928588867,
          0.19144731760025024
        ]
      },
      "cond_embed": {
        "weight": [
          [
            0.32575827836990356,
            0.32866960763931274,
            -0.45787739753723145,
            -0.3648186922073364
          ],
          [
            -0.08536648750305176,
            0.07767826318740845,
            -0.2819260358810425,
            -0.35934120416641235
          ],
          [
            -0.19610339403152466,
            0.2303103804588318,
            0.3428623676300049,
            -0.030711233615875244
          ],
          [
            -0.24653834104537964,
            -0.33642739057540894,
            -0.3375470042228699,
            0.47273534536361694
          ]
        ],
        "bias": [
          0.3500070571899414,
          0.3551543354988098,
          -0.04899090528488159,
          -0.0448836088180542
        ]
      },
      "time_embed": [
        {
          "proj_in": {
            "weight": [
              [
                -1.116183876991272,
                1.441734790802002,
                1.8274216651916504,
                -0.4564361572265625
              ],
              [
                -0.680932879447937,
                0.1943322867155075,
                -0.2644486129283905,
                0.25876903533935547
              ],
              [
                -0.9893211126327515,
                2.1666479110717773,
                -0.5668288469314575,
                1.1663120985031128
              ],
              [
                -1.980367660522461,
                0.3997953534126282,
                0.0616152249276638,
                1.4464038610458374
              ],
              [
                1.322554349899292,
                1.1802088022232056,
                -0.04524114355444908,
                0.26101014018058777
              ],
              [
                -0.2132822424173355,
                0.258847177028656,
                -0.39780038595199585,
                0.4329727590084076
              ],
              [
                0.4765200614929199,
                0.4095691740512848,
                -0.32282331585884094,
                1.2771425247192383
              ],
              [
                -1.6311832666397095,
                -0.2658641040325165,
                1.7354263067245483,
                1.9207490682601929
              ]
            ],
            "bias": [
              -0.05526266247034073,
              -0.022304661571979523,
              -0.022779271006584167,
              0.02984553575515747
            ]
          },
          "proj_out": {
            "weight": [
              [
                0.3522990942001343,
                0.44885700941085815,
                0.21548974514007568,
                0.29384875297546387
              ],
              [
                -0.4625697731971741,
                -0.3292832374572754,
                -0.36524587869644165,
                -0.23816198110580444
              ],
              [
                -0.3189651370048523,
                0.15814608335494995,
                0.08613830804824829,
                -0.1381203532218933
              ],
              [
                -0.028793931007385254,
                -0.03920447826385498,
                -0.31420063972473145,
                0.3284372091293335
              ]
            ],
            "bias": [
              0.012018144130706787,
              0.408730685710907,
              -0.15924519300460815,
              -0.13638442754745483
            ]
          },
          "rms_weight": [
            1.0,
            1.0,
            1.0,
            1.0
          ]
        },
        {
          "proj_in": {
            "weight": [
              [
                -0.7432525753974915,
                -1.3016058206558228,
                -0.07826393842697144,
                0.7792671322822571
              ],
              [
                -0.6859481334686279,
                -0.26524829864501953,
                -0.4975424110889435,
                -0.4102642238140106
              ],
              [
                2.13065242767334,
                -0.0015774358762428164,
                -0.6748420596122742,
                -0.6401462554931641
              ],
              [
                0.4347495436668396,
                0.25654011964797974,
                -0.848376989364624,
                -0.10578741133213043
              ],
              [
                -1.2129358053207397,
                -1.5967822074890137,
                0.3767523169517517,
                1.6099436283111572
              ],
              [
                1.6176327466964722,
                -0.32137489318847656,
                -0.8313112258911133,
                -1.1513298749923706
              ],
              [
                -0.14081160724163055,
                2.1004366874694824,
                1.0021414756774902,
                0.19010530412197113
              ],
              [
                0.7427951693534851,
                0.17325705289840698,
                0.19257819652557373,
                0.7615100145339966
              ]
            ],
            "bias": [
              0.006812073290348053,
              -0.05963869392871857,
              -0.01556115597486496,
              -0.009480297565460205
            ]
          },
          "proj_out": {
            "weight": [
              [
                -0.3381434679031372,
                -0.19919031858444214,
                0.39744269847869873,
                -0.26469677686691284
              ],
              [
                -0.34495705366134644,
                -0.06852489709854126,
                -0.49629491567611694,
                0.09440815448760986
              ],
              [
                0.03695821762084961,
                -0.4609605669975281,
                0.05330395698547363,
                0.1227920651435852
              ],
              [
                0.33567893505096436,
                -0.1997002363204956,
                0.311460018157959,
                -0.38841038942337036
              ]
            ],
            "bias": [
              0.4436156749725342,
              0.21364200115203857,
              0.15750592947006226,
              -0.04242229461669922
            ]
          },
          "rms_weight": [
            1.0,
            1.0,
            1.0,
            1.0
          ]
        }
      ],
      "res_blocks": [
        {
          "norm": {
            "weight": [
              1.0,
              1.0,
              1.0,
              1.0
            ],
            "bias": [
              0.0,
              0.0,
              0.0,
              0.0
            ]
          },
          "mlp_in": {
            "weight": [
              [
                0.15979719161987305,
                0.3271060585975647,
                -0.26198965311050415,
                -0.013531208038330078
              ],
              [
                0.3595482110977173,
                0.4077603816986084,
                0.3671860098838806,
                -0.3028385639190674
              ],
              [
                -0.026962578296661377,
                0.4557539224624634,
                0.32373857498168945,
                -0.18303412199020386
              ],
              [
                0.3157002925872803,
                -0.49394887685775757,
                0.431807279586792,
                0.4570865035057068
              ]
            ],
            "bias": [
              -0.2594478130340576,
              -0.3637825846672058,
              -0.2913395166397095,
              -0.4184682369232178
            ]
          },
          "mlp_out": {
            "weight": [
              [
                -0.32291632890701294,
                0.19968605041503906,
                -0.13635152578353882,
                0.20745617151260376
              ],
              [
                -0.00770801305770874,
                0.49632662534713745,
                0.3618497848510742,
                0.2897182106971741
              ],
              [
                0.0028893351554870605,
                -0.001408219337463379,
                0.014550507068634033,
                -0.03418797254562378
              ],
              [
                -0.2387905716896057,
                0.2901250123977661,
                0.3509790301322937,
                -0.05924946069717407
              ]
            ],
            "bias": [
              -0.10549837350845337,
              0.21739298105239868,
              0.13031983375549316,
              0.4518248438835144
            ]
          },
          "modulation": {
            "weight": [
              [
                -0.011742651462554932,
                0.4472103714942932,
                -0.3094990849494934,
                -0.3348392844200134,
                0.06836843490600586,
                -0.05796229839324951,
                0.268459677696228,
                0.3060474991798401,
                0.17860978841781616,
                0.32559698820114136,
                -0.07502919435501099,
                0.30798178911209106
              ],
              [
                0.2811608910560608,
                0.10735440254211426,
                -0.3430035710334778,
                -0.02056330442428589,
                -0.04671257734298706,
                0.23792052268981934,
                0.01911163330078125,
                0.3755093812942505,
                -0.01743847131729126,
                0.18110424280166626,
                -0.1830196976661682,
                -0.4999926686286926
              ],
              [
                0.37022894620895386,
                0.2578611373901367,
                -0.22248965501785278,
                -0.39972370862960815,
                -0.3819596767425537,
                -0.14515990018844604,
                -0.4637652039527893,
                0.3366727828979492,
                -0.35522985458374023,
                -0.3900167942047119,
                0.11734652519226074,
                0.003672659397125244
              ],
              [
                0.1562708616256714,
                -0.4040013551712036,
                -0.311485230922699,
                -0.07380986213684082,
                -0.05012333393096924,
                -0.26184284687042236,
                0.16855019330978394,
                -0.4148455262184143,
                -0.12871050834655762,
                0.1411494016647339,
                0.08713239431381226,
                0.2430870532989502
              ]
            ],
            "bias": [
              -0.20157527923583984,
              0.44240981340408325,
              -0.11621975898742676,
              0.1788690686225891,
              -0.10802638530731201,
              0.15417784452438354,
              0.1498083472251892,
              -0.2172296643257141,
              -0.34151554107666016,
              -0.22834384441375732,
              0.4756162762641907,
              -0.015248894691467285
            ]
          }
        },
        {
          "norm": {
            "weight": [
              1.0,
              1.0,
              1.0,
              1.0
            ],
            "bias": [
              0.0,
              0.0,
              0.0,
              0.0
            ]
          },
          "mlp_in": {
            "weight": [
              [
                -0.08901125192642212,
                -0.35897815227508545,
                0.08011019229888916,
                0.20571881532669067
              ],
              [
                0.1932254433631897,
                -0.4651690125465393,
                0.15802079439163208,
                0.3195927143096924
              ],
              [
                0.1998923420906067,
                -0.12679988145828247,
                -0.09739553928375244,
                0.2859095335006714
              ],
              [
                -0.36006706953048706,
                0.10161399841308594,
                -0.42142248153686523,
                -0.127325177192688
              ]
            ],
            "bias": [
              -0.4522472620010376,
              0.0771443247795105,
              -0.2708488702774048,
              -0.4429919123649597
            ]
          },
          "mlp_out": {
            "weight": [
              [
                -0.24685120582580566,
                0.42787379026412964,
                0.28824442625045776,
                0.05970954895019531
              ],
              [
                0.3901073932647705,
                -0.31410491466522217,
                -0.32256942987442017,
                0.23874682188034058
              ],
              [
                -0.46707773208618164,
                -0.3788166046142578,
                -0.19004976749420166,
                0.12743240594863892
              ],
              [
                0.22071194648742676,
                0.02206653356552124,
                0.4390191435813904,
                -0.05005013942718506
              ]
            ],
            "bias": [
              0.39682793617248535,
              0.3164815902709961,
              0.3124684691429138,
              -0.12563848495483398
            ]
          },
          "modulation": {
            "weight": [
              [
                0.18032151460647583,
                -0.36491554975509644,
                -0.48886722326278687,
                0.15536552667617798,
                0.1532871127128601,
                -0.03853327035903931,
                0.39895981550216675,
                -0.19961726665496826,
                0.2498067021369934,
                0.30154192447662354,
                -0.38078629970550537,
                0.4311787486076355
              ],
              [
                0.07155263423919678,
                -0.3522011637687683,
                0.1258004903793335,
                -0.4570855498313904,
                0.31053030490875244,
                -0.19157439470291138,
                -0.4269478917121887,
                -0.10620850324630737,
                -0.3296281099319458,
                0.02621328830718994,
                0.11130422353744507,
                0.3440607786178589
              ],
              [
                0.19879597425460815,
                -0.37344974279403687,
                -0.32233548164367676,
                -0.3821473717689514,
                0.2931671738624573,
                -0.19282394647598267,
                -0.09824317693710327,
                0.32235443592071533,
                -0.01538175344467163,
                -0.18439984321594238,
                0.24647784233093262,
                -0.09416782855987549
              ],
              [
                -0.11143666505813599,
                0.05022144317626953,
                0.23436927795410156,
                0.06707441806793213,
                -0.1150779128074646,
                0.3091426491737366,
                -0.421031653881073,
                -0.2618684768676758,
                0.08397716283798218,
                -0.4239943027496338,
                -0.30370986461639404,
                -0.02632927894592285
              ]
            ],
            "bias": [
              0.23784208297729492,
              -0.13374829292297363,
              -0.037830650806427,
              0.22474950551986694,
              -0.2405846118927002,
              0.13692277669906616,
              -0.03630256652832031,
              -0.13539361953735352,
              -0.010052919387817383,
              0.269095778465271,
              -0.04511463642120361,
              -0.20156258344650269
            ]
          }
        }
      ],
      "final_layer": {
        "norm": {
          "weight": [
            1.0,
            1.0,
            1.0,
            1.0
          ],
          "bias": null
        },
        "linear": {
          "weight": [
            [
              0.4674651026725769,
              0.30504781007766724,
              0.45893561840057373,
              -0.34444957971572876
            ],
            [
              -0.020056426525115967,
              -0.13221889734268188,
              -0.009851455688476562,
              0.1385771632194519
            ],
            [
              0.10440772771835327,
              -0.046388864517211914,
              -0.3064884543418884,
              -0.0010775327682495117
            ],
            [
              -0.24113625288009644,
              0.4817972779273987,
              -0.26609039306640625,
              -0.21167564392089844
            ]
          ],
          "bias": [
            -0.07267874479293823,
            0.256237268447876,
            -0.48803138732910156,
            -0.4483942985534668
          ]
        },
        "modulation": {
          "weight": [
            [
              -0.4547198414802551,
              -0.4530244469642639,
              0.4529399871826172,
              0.4029276371002197,
              0.4300098419189453,
              -0.31527936458587646,
              -0.3427785634994507,
              0.03518843650817871
            ],
            [
              -0.44001132249832153,
              -0.29091310501098633,
              0.17013555765151978,
              -0.1965072751045227,
              -0.3987963795661926,
              0.49170827865600586,
              0.16568219661712646,
              -0.3199060559272766
            ],
            [
              -0.21678978204727173,
              0.301558256149292,
              0.4042087197303772,
              0.3356326222419739,
              0.09870439767837524,
              -0.12730276584625244,
              0.2854224443435669,
              -0.06022518873214722
            ],
            [
              0.45316940546035767,
              -0.14245539903640747,
              0.11292821168899536,
              -0.24759984016418457,
              0.1821671724319458,
              0.20985960960388184,
              -0.23288977146148682,
              -0.11660337448120117
            ]
          ],
          "bias": [
            -0.36489349603652954,
            0.4631967544555664,
            0.2991744875907898,
            -0.17308062314987183,
            -0.22427129745483398,
            -0.048127949237823486,
            -0.09994930028915405,
            -0.0352664589881897
          ]
        }
      }
    }
  },
  "conditioner": {
    "n_bins": 48,
    "embed_weight": [
      [
        0.03997595235705376,
        -0.14043281972408295,
        -0.07285845279693604,
        0.03947632387280464
      ],
      [
        -0.1520908623933792,
        -0.18471398949623108,
        -0.0932760238647461,
        -0.0867437869310379
      ],
      [
        -0.10837659984827042,
        0.18852560222148895,
        -0.16525064408779144,
        0.06238165125250816
      ],
      [
        -0.05149519443511963,
        0.1666191816329956,
        0.10264954715967178,
        0.08650469779968262
      ],
      [
        -0.15185360610485077,
        -0.1135861873626709,
        -0.08522961288690567,
        -0.08046390861272812
      ],
      [
        0.10015922039747238,
        0.02256958559155464,
        -0.019234513863921165,
        0.006711721420288086
      ],
      [
        -0.1465407907962799,
        -0.1624399870634079,
        -0.07619395107030869,
        -0.039104342460632324
      ],
      [
        0.02963252179324627,
        -0.010111498646438122,
        -0.07060255855321884,
        -0.06979542225599289
      ],
      [
        -0.006237220950424671,
        0.18863649666309357,
        -0.15341925621032715,
        0.18301832675933838
      ],
      [
        -0.022381186485290527,
        0.023020649328827858,
        0.038341738283634186,
        -0.05945746973156929
      ],
      [
        -0.0051809074357151985,
        -0.030392860993742943,
        0.17105941474437714,
        0.12971524894237518
      ],
      [
        -0.008465480990707874,
        -0.11560330539941788,
        0.1238788366317749,
        -0.09372346848249435
      ],
      [
        -0.13158202171325684,
        0.054388951510190964,
        -0.12718860805034637,
        0.14397616684436798
      ],
      [
        0.16933532059192657,
        0.12007670849561691,
        0.11713724583387375,
        0.19514095783233643
      ],
      [
        0.1056053414940834,
        -0.09911251068115234,
        -0.09878208488225937,
        -0.022699331864714622
      ],
      [
        -0.18926607072353363,
        -0.0332522876560688,
        0.07030858844518661,
        0.016810894012451172
      ],
      [
        -0.1864875853061676,
        0.19755087792873383,
        -0.08707918971776962,
        -0.09542012214660645
      ],
      [
        -0.09523355960845947,
        -0.14950048923492432,
        0.175885871052742,
        0.0496157668530941
      ],
      [
        0.11170337349176407,
        -0.04169187694787979,
        -0.062277983874082565,
        0.1931246519088745
      ],
      [
        0.06753640621900558,
        0.13387827575206757,
        -0.13760589063167572,
        0.09480474144220352
      ],
      [
        -0.15476146340370178,
        0.135040283203125,
        0.028513789176940918,
        -0.06885974854230881
      ],
      [
        0.09355097264051437,
        -0.13505402207374573,
        0.1550697535276413,
        -0.09243481606245041
      ],
      [
        0.12207424640655518,
        -0.002740454627200961,
        -0.12226307392120361,
        0.07235851138830185
      ],
      [
        0.03771879896521568,
        0.18793487548828125,
        0.05919492244720459,
        -0.04428842291235924
      ],
      [
        -0.033765245229005814,
        0.004763436503708363,
        -0.18986979126930237,
        0.06463620811700821
      ],
      [
        0.003454995108768344,
        0.03212180361151695,
        0.053322624415159225,
        0.07512910664081573
      ],
      [
        0.1701037436723709,
        0.16187088191509247,
        0.06950879096984863,
        0.1619829386472702
      ],
      [
        0.18923334777355194,
        -0.1353430598974228,
        -0.18131756782531738,
        0.05776367336511612
      ],
      [
        0.18245446681976318,
        0.11691074818372726,
        0.14707115292549133,
        0.11541300266981125
      ],
      [
        -0.17998042702674866,
        0.004860592074692249,
        -0.11655671894550323,
        -0.1902189701795578
      ],
      [
        -0.13667109608650208,
        -0.10247383266687393,
        0.046605635434389114,
        -0.14764201641082764
      ],
      [
        0.05310037359595299,
        0.10588081181049347,
        -0.1511293649673462,
        0.002253413200378418
      ],
      [
        -0.05713710933923721,
        -0.1903529018163681,
        -0.0563344731926918,
        0.1457918882369995
      ],
      [
        -0.18667542934417725,
        0.07371745258569717,
        -0.03149707242846489,
        -0.09853699058294296
      ],
      [
        -0.13548164069652557,
        -0.08209066838026047,
        0.15772466361522675,
        -0.09923026710748672
      ],
      [
        0.024542784318327904,
        -0.09753089398145676,
        -0.1629277467727661,
        0.17702868580818176
      ],
      [
        -0.1257791966199875,
        -0.006443667691200972,
        -0.16102789342403412,
        0.15902720391750336
      ],
      [
        0.020499302074313164,
        -0.1342727690935135,
        -0.1532721370458603,
        -0.15290597081184387
      ],
      [
        0.15913014113903046,
        -0.1695605367422104,
        -0.07954452186822891,
        0.10426481068134308
      ],
      [
        0.02671949937939644,
        0.1816178411245346,
        -0.002625584602355957,
        0.16917486488819122
      ],
      [
        0.17732475697994232,
        -0.1578398048877716,
        0.04297799989581108,
        0.16442637145519257
      ],
      [
        0.08329103142023087,
        0.02040266990661621,
        -0.009838009253144264,
        0.1639791578054428
      ],
      [
        -0.03695831447839737,
        -0.11890824139118195,
        -0.08681857585906982,
        0.14588776230812073
      ],
      [
        -0.11664612591266632,
        -0.0010972500313073397,
        -0.05165402963757515,
        0.06403787434101105
      ],
      [
        0.17555300891399384,
        -0.018447471782565117,
        -0.19238679111003876,
        0.03768210485577583
      ],
      [
        -0.11802499741315842,
        -0.09269342571496964,
        0.18141305446624756,
        0.05098717287182808
      ],
      [
        -0.13806381821632385,
        0.10172169655561447,
        -0.11080386489629745,
        0.12706588208675385
      ],
      [
        -0.15910978615283966,
        0.15124006569385529,
        -0.17047329246997833,
        0.1693987399339676
      ],
      [
        0.09046361595392227,
        -0.12834902107715607,
        -0.17712204158306122,
        0.049297478049993515
      ]
    ],
    "text": "Hello.",
    "tokens": [
      [
        2,
        37,
        10,
        7,
        7,
        6,
        4
      ]
    ]
  },
  "input_linear_weight": [
    [
      0.005948781967163086,
      -0.01666165702044964,
      -0.08720602095127106,
      -0.010292279534041882
    ],
    [
      -0.010988033376634121,
      -0.08732064068317413,
      0.04690880700945854,
      -0.02938181161880493
    ],
    [
      -0.07252830266952515,
      0.04766973480582237,
      -0.04271337017416954,
      -0.024995123967528343
    ],
    [
      0.049131907522678375,
      0.04625454172492027,
      -0.07553142309188843,
      -0.040540505200624466
    ]
  ],
  "bos_emb": [
    -0.09455231577157974,
    -0.0947180762887001,
    0.0632089301943779,
    0.04676434025168419
  ],
  "emb_mean": [
    0.0,
    0.0,
    0.0,
    0.0
  ],
  "emb_std": [
    1.0,
    1.0,
    1.0,
    1.0
  ],
  "speaker_proj_weight": [
    [
      -0.006532812025398016,
      0.05017251893877983,
      0.037557125091552734,
      0.00542218703776598
    ],
    [
      0.09992467612028122,
      -0.06577207148075104,
      -0.07477539777755737,
      0.014911222271621227
    ],
    [
      0.05759108066558838,
      0.05006743595004082,
      0.06345206499099731,
      0.028254294767975807
    ],
    [
      0.0772959515452385,
      -0.07112785428762436,
      -0.017930377274751663,
      -0.0800982341170311
    ]
  ],
  "transformer": {
    "layers": [
      {
        "self_attn": {
          "in_proj": {
            "weight": [
              [
                0.05610673502087593,
                0.0900689959526062,
                0.07102717459201813,
                0.026866424828767776
              ],
              [
                0.06913365423679352,
                0.06278115510940552,
                -0.038536977022886276,
                -0.060808923095464706
              ],
              [
                -0.05203372240066528,
                0.0833800807595253,
                0.01334922295063734,
                0.06735686212778091
              ],
              [
                -0.0940648540854454,
                0.0390438549220562,
                0.014599740505218506,
                0.08984629064798355
              ],
              [
                0.04874458536505699,
                -0.01115407980978489,
                -0.01967027224600315,
                -0.05820832401514053
              ],
              [
                0.02449479140341282,
                0.029348254203796387,
                -0.050666358321905136,
                0.062598817050457
              ],
              [
                0.006003940012305975,
                0.0857800617814064,
                -0.06929910182952881,
                0.08851208537817001
              ],
              [
                -0.046826329082250595,
                -0.06266622990369797,
                -0.041569389402866364,
                -0.05787637457251549
              ],
              [
                0.08836718648672104,
                -0.08648983389139175,
                -0.04142338037490845,
                -0.07051856815814972
              ],
              [
                -0.04701923206448555,
                0.02969667874276638,
                -0.035233378410339355,
                0.004698812961578369
              ],
              [
                -0.015339446254074574,
                -0.011685407720506191,
                -0.06412575393915176,
                0.0664343386888504
              ],
              [
                0.045278239995241165,
                0.040225233882665634,
                -0.03231290727853775,
                0.039568591862916946
              ]
            ]
          },
          "out_proj": {
            "weight": [
              [
                -0.05643134191632271,
                0.05826277658343315,
                -0.051621533930301666,
                -0.06834187358617783
              ],
              [
                -0.08017497509717941,
                0.05470309406518936,
                0.004962480161339045,
                -0.03214312717318535
              ],
              [
                0.08764854818582535,
                0.009894907474517822,
                0.0058429003693163395,
                0.07248139381408691
              ],
              [
                -0.08094283193349838,
                0.07603719085454941,
                -0.01770911179482937,
                0.07938957214355469
              ]
            ]
          }
        },
        "norm1": {
          "gamma": [
            1.0869898796081543,
            1.060616374015808,
            1.0821949243545532,
            1.0498725175857544
          ],
          "beta": [
            0.026646489277482033,
            -0.02951195277273655,
            0.04941495880484581,
            0.04450364038348198
          ]
        },
        "norm2": {
          "gamma": [
            0.9484150409698486,
            1.09026038646698,
            1.0765399932861328,
            0.9193328619003296
          ],
          "beta": [
            -0.02160993218421936,
            -0.013902068138122559,
            -0.04036656767129898,
            0.012259477749466896
          ]
        },
        "linear1": {
          "weight": [
            [
              -0.06146186590194702,
              -0.05908292531967163,
              0.07090041786432266,
              -0.012813592329621315
            ],
            [
              0.09726613014936447,
              -0.00410728482529521,
              -0.09177476167678833,
              0.03977028280496597
            ],
            [
              -0.09349779039621353,
              0.08413952589035034,
              0.08967043459415436,
              -0.0623495951294899
            ],
            [
              0.015293813310563564,
              -0.07776918262243271,
              -0.09848189353942871,
              0.028772486373782158
            ],
            [
              0.07259410619735718,
              -0.05722348764538765,
              0.08817394077777863,
              -0.0012418151600286365
            ],
            [
              -0.06294035911560059,
              0.021973062306642532,
              0.05113502964377403,
              0.05372602865099907
            ],
            [
              -0.09202517569065094,
              -0.029070699587464333,
              0.03921548277139664,
              0.07260697335004807
            ],
            [
              -0.043953265994787216,
              0.016650879755616188,
              -0.04813360050320625,
              0.053943514823913574
            ]
          ]
        },
        "linear2": {
          "weight": [
            [
              0.09600605070590973,
              0.0096902372315526,
              -0.06354059278964996,
              -0.09982168674468994,
              -0.05319155380129814,
              0.06816501915454865,
              -0.006174433510750532,
              0.06639732420444489
            ],
            [
              -0.029759729281067848,
              0.05722087621688843,
              -0.03546635061502457,
              0.04765349626541138,
              -0.07369432598352432,
              -0.09547437727451324,
              -0.05799397453665733,
              -0.04786035045981407
            ],
            [
              -0.008632314391434193,
              -0.059581078588962555,
              -0.033470358699560165,
              -0.08335281908512115,
              0.05504310131072998,
              0.011966252699494362,
              0.011861467733979225,
              -0.08676842600107193
            ],
            [
              -0.06416326761245728,
              -0.04789423942565918,
              -0.0345107801258564,
              -0.028850007802248,
              -0.03187204524874687,
              -0.051120828837156296,
              -0.01825087144970894,
              -0.029104923829436302
            ]
          ]
        }
      }
    ]
  },
  "out_norm": {
    "gamma": [
      1.0196995735168457,
      0.954771876335144,
      1.0276743173599243,
      1.044212818145752
    ],
    "beta": [
      0.03287450224161148,
      0.03645399957895279,
      0.01644870638847351,
      0.01650102809071541
    ]
  },
  "out_eos": {
    "weight": [
      [
        -0.012203884311020374,
        -0.07893138378858566,
        0.041576314717531204,
        0.011840594001114368
      ]
    ],
    "bias": [
      -0.007991778664290905
    ]
  },
  "generation": {
    "max_gen_len": 2,
    "frames_after_eos": 0,
    "temp": 0.0,
    "lsd_decode_steps": 2,
    "noise_clamp": null,
    "eos_threshold": 10.0
  },
  "latents": [
    [
      [
        -0.17409765720367432,
        0.28666067123413086,
        -1.1480501890182495,
        -0.48062777519226074
      ],
      [
        0.045601025223731995,
        0.5615249872207642,
        -0.6243576407432556,
        -0.7302324175834656
      ]
    ]
  ],
  "eos": [
    [
      false,
      false
    ]
  ],
  "audio_chunks": [
    [
      [
        0.02607700228691101,
        -0.16904012858867645,
        -0.2895914316177368,
        -0.2769768238067627
      ]
    ]
  ],
  "audio_full": [
    [
      [
        0.02607700228691101,
        -0.16904012858867645,
        -0.2895914316177368,
        -0.2769768238067627
      ]
    ]
  ],
  "quantizer_weight": [
    [
      [
        0.18719597160816193
      ],
      [
        -0.1737891286611557
      ],
      [
        -0.15474604070186615
      ],
      [
        0.11980944126844406
      ]
    ],
    [
      [
        -0.12355630844831467
      ],
      [
        -0.1444130390882492
      ],
      [
        0.14466345310211182
      ],
      [
        0.19657455384731293
      ]
    ],
    [
      [
        0.13298392295837402
      ],
      [
        -0.11348102241754532
      ],
      [
        -0.020485281944274902
      ],
      [
        0.013137674890458584
      ]
    ],
    [
      [
        0.06430118530988693
      ],
      [
        0.18837682902812958
      ],
      [
        0.114724300801754
      ],
      [
        0.12518075108528137
      ]
    ]
  ]
}