{
  "config": {
    "sample_rate": 8,
    "frame_rate": 2.0,
    "encoder_frame_rate": 2.0,
    "channels": 1,
    "dimension": 4,
    "transformer": {
      "input_dimension": 4,
      "output_dimensions": [
        4
      ],
      "d_model": 8,
      "num_heads": 2,
      "num_layers": 1,
      "layer_scale": 0.1,
      "context": 4,
      "max_period": 10000.0,
      "dim_feedforward": 16
    }
  },
  "encoder_transformer": {
    "input_proj": {
      "kind": "linear",
      "weight": [
        [
          0.33290088176727295,
          -0.13068050146102905,
          -0.25245529413223267,
          0.04016989469528198
        ],
        [
          -0.04917937517166138,
          0.29438596963882446,
          0.03331834077835083,
          -0.1997343897819519
        ],
        [
          0.07560431957244873,
          -0.2411205768585205,
          0.16124695539474487,
          0.1631665825843811
        ],
        [
          0.11153042316436768,
          0.1867474913597107,
          -0.2086799144744873,
          0.478610634803772
        ],
        [
          -0.06207197904586792,
          0.2493879199028015,
          0.3739513158798218,
          -0.17940473556518555
        ],
        [
          0.31960630416870117,
          -0.09756356477737427,
          0.18670976161956787,
          -0.2673526406288147
        ],
        [
          0.05456864833831787,
          0.1857839822769165,
          -0.2655256986618042,
          -0.2288440465927124
        ],
        [
          0.4355594515800476,
          -0.45970380306243896,
          -0.0671810507774353,
          -0.32471275329589844
        ]
      ]
    },
    "output_projs": [
      {
        "kind": "linear",
        "weight": [
          [
            0.3043898940086365,
            -0.22655810415744781,
            0.14834366738796234,
            0.09073659777641296,
            -0.3516343832015991,
            0.24731099605560303,
            0.2833046317100525,
            -0.10924825072288513
          ],
          [
            -0.23425880074501038,
            -0.19940200448036194,
            -0.2240029126405716,
            0.21978582441806793,
            0.025805503129959106,
            -0.09390566498041153,
            -0.1353442370891571,
            -0.19042430818080902
          ],
          [
            -0.13299395143985748,
            -0.013582664541900158,
            -0.1823417991399765,
            -0.30945664644241333,
            0.19529938697814941,
            -0.335186243057251,
            -0.20332688093185425,
            0.09401558339595795
          ],
          [
            -0.28429368138313293,
            0.2796190083026886,
            -0.3389296531677246,
            0.10612095892429352,
            0.16567230224609375,
            0.30550122261047363,
            0.15705853700637817,
            -0.33889761567115784
          ]
        ]
      }
    ],
    "layers": [
      {
        "self_attn": {
          "in_proj": {
            "weight": [
              [
                0.09776479750871658,
                0.084879070520401,
                -0.3412606716156006,
                0.1770862191915512,
                0.12134511768817902,
                -0.03917912021279335,
                0.3088271915912628,
                0.09195708483457565
              ],
              [
                0.1034318208694458,
                0.31513944268226624,
                0.13550914824008942,
                -0.08666352927684784,
                0.13668771088123322,
                0.013087354600429535,
                -0.14684487879276276,
                0.01613183319568634
              ],
              [
                -0.32237234711647034,
                -0.06991074979305267,
                0.22090794146060944,
                0.31115230917930603,
                0.17275749146938324,
                -0.28328076004981995,
                -0.02098436839878559,
                0.3386404514312744
              ],
              [
                0.09130659699440002,
                0.1774250864982605,
                -0.16729681193828583,
                -0.15675882995128632,
                -0.24313373863697052,
                0.06650111079216003,
                0.218858003616333,
                0.1716657131910324
              ],
              [
                -0.18185235559940338,
                0.2159375250339508,
                -0.31858697533607483,
                -0.0033767633140087128,
                -0.13275966048240662,
                0.2827698588371277,
                0.011004331521689892,
                0.0359279103577137
              ],
              [
                0.10973989963531494,
                0.08344249427318573,
                0.02905658446252346,
                0.1459258794784546,
                -0.03158210963010788,
                -0.2816272974014282,
                -0.21212095022201538,
                0.1437026709318161
              ],
              [
                -0.2926563620567322,
                -0.208753764629364,
                0.05954106152057648,
                -0.04475371539592743,
                -0.06592462211847305,
                0.24997544288635254,
                -0.019085820764303207,
                0.21318259835243225
              ],
              [
                0.15654586255550385,
                -0.06549965590238571,
                -0.34503400325775146,
                -0.15935580432415009,
                0.13323116302490234,
                -0.04688166826963425,
                -0.24113750457763672,
                -0.09279357641935349
              ],
              [
                0.3167763948440552,
                -0.2881467342376709,
                0.03079543635249138,
                0.08063581585884094,
                -0.1404806673526764,
                -0.2288169264793396,
                0.23306477069854736,
                -0.34545135498046875
              ],
              [
                -0.21800369024276733,
                -0.014767328277230263,
                0.18639962375164032,
                0.12389099597930908,
                -0.196702241897583,
                -0.13544605672359467,
                -0.015547593124210835,
                -0.18983955681324005
              ],
              [
                0.248491108417511,
                0.03937046602368355,
                -0.13923244178295135,
                0.28633958101272583,
                -0.060852084308862686,
                -0.30742913484573364,
                -0.03944118693470955,
                0.1816720962524414
              ],
              [
                -0.11673703044652939,
                0.19360166788101196,
                -0.10976468026638031,
                -0.10436318069696426,
                0.22905698418617249,
                -0.002217767061665654,
                0.24550703167915344,
                0.22962099313735962
              ],
              [
                0.17546984553337097,
                -0.3314268887042999,
                -0.2657523453235626,
                -0.27204588055610657,
                0.18919968605041504,
                0.004045212175697088,
                0.18008539080619812,
                -0.0727875605225563
              ],
              [
                0.09513091295957565,
                0.15717461705207825,
                -0.20661978423595428,
                0.04744647815823555,
                -0.1714828759431839,
                -0.06118107959628105,
                0.10793188214302063,
                0.0674859955906868
              ],
              [
                -0.11583496630191803,
                -0.01555968914180994,
                0.30014941096305847,
                -0.2902306020259857,
                0.32395049929618835,
                -0.34270161390304565,
                0.09583105891942978,
                -0.0217667818069458
              ],
              [
                -0.0757095217704773,
                -0.283153772354126,
                0.28678953647613525,
                -0.21145756542682648,
                -0.018291478976607323,
                0.17983466386795044,
                -0.35216081142425537,
                -0.27441251277923584
              ],
              [
                0.07428516447544098,
                -0.27458426356315613,
                -0.09443296492099762,
                -0.009691962972283363,
                0.1355823576450348,
                0.03818099945783615,
                -0.19003385305404663,
                0.007372874300926924
              ],
              [
                -0.18186171352863312,
                -0.2985810339450836,
                0.10008860379457474,
                0.31362149119377136,
                0.29516905546188354,
                0.01168664637953043,
                0.09257719665765762,
                -0.27949997782707214
              ],
              [
                0.006487327162176371,
                -0.35339343547821045,
                -0.29840877652168274,
                0.21251076459884644,
                0.23677213490009308,
                -0.2968366742134094,
                0.2567523121833801,
                0.2114483267068863
              ],
              [
                -0.15622302889823914,
                0.19068153202533722,
                0.14030605554580688,
                -0.26429516077041626,
                -0.28700071573257446,
                -0.09678930789232254,
                -0.19706757366657257,
                0.11667335033416748
              ],
              [
                -0.29460418224334717,
                0.08140967041254044,
                -0.26236382126808167,
                -0.24658189713954926,
                -0.1039709597826004,
                0.044316019862890244,
                0.0961272269487381,
                -0.17575159668922424
              ],
              [
                -0.11265271157026291,
                0.3378972113132477,
                0.22282035648822784,
                -0.011002644896507263,
                -0.2743566036224365,
                -0.10612424463033676,
                0.18919433653354645,
                -0.30545446276664734
              ],
              [
                -0.018630171194672585,
                0.2332790046930313,
                -0.3360062539577484,
                -0.3169376254081726,
                -0.21375912427902222,
                -0.03314090892672539,
                0.30606555938720703,
                -0.1497298777103424
              ],
              [
                -0.2178342491388321,
                -0.1281810849905014,
                0.1567278951406479,
                -0.037303246557712555,
                0.24326477944850922,
                0.061393290758132935,
                -0.07223177701234818,
                -0.2807281017303467
              ]
            ]
          },
          "out_proj": {
            "weight": [
              [
                0.20091331005096436,
                -0.3177259862422943,
                0.31984272599220276,
                0.3096213638782501,
                -0.27118566632270813,
                0.3469122648239136,
                0.18111330270767212,
                0.057319123297929764
              ],
              [
                0.19986599683761597,
                -0.11605442315340042,
                0.23448723554611206,
                -0.31285327672958374,
                -0.3357272148132324,
                0.31233423948287964,
                -0.275090754032135,
                -0.2705005407333374
              ],
              [
                0.0735776498913765,
                0.00809000339359045,
                0.15556932985782623,
                -0.09406590461730957,
                0.267655611038208,
                0.0888541117310524,
                0.024631207808852196,
                -0.1787949800491333
              ],
              [
                0.33203861117362976,
                -0.09267379343509674,
                0.006736541632562876,
                -0.19273214042186737,
                -0.059573136270046234,
                0.25878822803497314,
                0.2959350049495697,
                -0.24942344427108765
              ],
              [
                -0.009651249274611473,
                -0.1263718456029892,
                -0.1707814782857895,
                -0.041204191744327545,
                0.0006740124081261456,
                -0.09965500235557556,
                -0.025076616555452347,
                -0.302017480134964
              ],
              [
                0.05383121967315674,
                0.09151121973991394,
                0.28398406505584717,
                0.32788869738578796,
                -0.3412978947162628,
                0.08545606583356857,
                -0.1767023801803589,
                0.13994456827640533
              ],
              [
                -0.02441444620490074,
                -0.20119240880012512,
                0.3134702146053314,
                0.017220402136445045,
                0.2807433009147644,
                -0.021635789424180984,
                -0.33717840909957886,
                0.2159258872270584
              ],
              [
                -0.1404861956834793,
                -0.05681980773806572,
                0.24489109218120575,
                -0.14010320603847504,
                -0.2636992931365967,
                -0.15833774209022522,
                0.03583097457885742,
                -0.3418143093585968
              ]
            ]
          }
        },
        "norm1": {
          "gamma": [
            1.0,
            1.0,
            1.0,
            1.0,
            1.0,
            1.0,
            1.0,
            1.0
          ],
          "beta": [
            0.0,
            0.0,
            0.0,
            0.0,
            0.0,
            0.0,
            0.0,
            0.0
          ]
        },
        "norm2": {
          "gamma": [
            1.0,
            1.0,
            1.0,
            1.0,
            1.0,
            1.0,
            1.0,
            1.0
          ],
          "beta": [
            0.0,
            0.0,
            0.0,
            0.0,
            0.0,
            0.0,
            0.0,
            0.0
          ]
        },
        "linear1": {
          "weight": [
            [
              -0.007926009595394135,
              -0.253107488155365,
              -0.11539326608181,
              -0.13768553733825684,
              -0.06060704216361046,
              -0.3183867335319519,
              0.10250062495470047,
              0.22733618319034576
            ],
            [
              -0.1616552472114563,
              -0.1584862619638443,
              0.029462838545441628,
              -0.2814508378505707,
              -0.1492787003517151,
              -0.3527967631816864,
              0.32062822580337524,
              0.33179962635040283
            ],
            [
              -0.11549922078847885,
              0.25686323642730713,
              -0.19057540595531464,
              -0.08261760324239731,
              -0.29601380228996277,
              0.23548033833503723,
              0.13981719315052032,
              -0.28689950704574585
            ],
            [
              0.1077408716082573,
              0.0731283649802208,
              0.31634727120399475,
              0.061753518879413605,
              -0.3158133327960968,
              0.1481579691171646,
              0.01619475707411766,
              0.08916877955198288
            ],
            [
              0.0942380353808403,
              0.10625877976417542,
              -0.3282879889011383,
              -0.24727357923984528,
              -0.33077752590179443,
              -0.2802095115184784,
              0.030720246955752373,
              0.1563023030757904
            ],
            [
              0.33417773246765137,
              0.14332613348960876,
              -0.02955438196659088,
              0.24333587288856506,
              -0.28703629970550537,
              0.03921953961253166,
              -0.05581654608249664,
              -0.07306759059429169
            ],
            [
              -0.04536134749650955,
              0.07657298445701599,
              0.11475187540054321,
              0.05265393108129501,
              0.00020078758825547993,
              0.25302568078041077,
              0.05321477726101875,
              -0.0874505341053009
            ],
            [
              -0.00270519545301795,
              -0.18469591438770294,
              -0.19800812005996704,
              0.31243985891342163,
              -0.27988767623901367,
              -0.26373520493507385,
              -0.33841049671173096,
              -0.004046308342367411
            ],
            [
              0.17707559466362,
              0.14442430436611176,
              -0.08615443855524063,
              -0.17431220412254333,
              -0.32153433561325073,
              0.11136044561862946,
              -0.2663773000240326,
              0.303829550743103
            ],
            [
              0.2983740568161011,
              -0.10422009229660034,
              -0.3342096209526062,
              0.05077173560857773,
              0.03137386217713356,
              -0.07851262390613556,
              -0.33854058384895325,
              0.002008170820772648
            ],
            [
              -0.2435818910598755,
              0.03511717543005943,
              0.29957693815231323,
              0.3317614495754242,
              0.2129259556531906,
              -0.06591968983411789,
              -0.017413854598999023,
              0.2510276436805725
            ],
            [
              -0.234983891248703,
              -0.25151726603507996,
              -0.15487322211265564,
              0.18436266481876373,
              -0.16831731796264648,
              0.1612931191921234,
              0.005612021312117577,
              0.12674665451049805
            ],
            [
              0.01642036996781826,
              -0.05228615552186966,
              0.31811442971229553,
              0.020984578877687454,
              -0.08103494346141815,
              0.05496172234416008,
              0.34237200021743774,
              -0.11238836497068405
            ],
            [
              -0.25985199213027954,
              0.3507908582687378,
              0.07513893395662308,
              -0.08969966322183609,
              -0.11089547723531723,
              -0.028729062527418137,
              -0.11098486930131912,
              0.31944262981414795
            ],
            [
              -0.11464865505695343,
              -0.20848967134952545,
              0.1171586662530899,
              0.25327932834625244,
              -0.1920786052942276,
              0.1963367909193039,
              -0.12726914882659912,
              0.11993955820798874
            ],
            [
              -0.28693076968193054,
              -0.2390468418598175,
              -0.21534456312656403,
              -0.2998683750629425,
              0.14254097640514374,
              0.10135461390018463,
              0.0962444320321083,
              0.13731704652309418
            ]
          ]
        },
        "linear2": {
          "weight": [
            [
              0.1831618845462799,
              -0.18772950768470764,
              0.05881419777870178,
              0.23805943131446838,
              -0.009110867977142334,
              -0.08910340070724487,
              0.242745041847229,
              -0.11162054538726807,
              0.1253158450126648,
              0.16592445969581604,
              -0.06213724613189697,
              -0.17775365710258484,
              -0.05139151215553284,
              0.07665282487869263,
              0.17216342687606812,
              -0.059245288372039795
            ],
            [
              -0.07557085156440735,
              0.22469601035118103,
              0.16168099641799927,
              0.04824593663215637,
              0.16601619124412537,
              -0.016704440116882324,
              0.10216665267944336,
              -0.1297919750213623,
              0.03883281350135803,
              0.12422758340835571,
              -0.08633089065551758,
              0.21634376049041748,
              -0.19602763652801514,
              0.1646997332572937,
              -0.2418762445449829,
              0.14220768213272095
            ],
            [
              -0.15353858470916748,
              0.03916814923286438,
              -0.08659163117408752,
              0.09041887521743774,
              -0.0808681845664978,
              -0.15890204906463623,
              0.08580893278121948,
              0.05183213949203491,
              0.07782498002052307,
              0.08969786763191223,
              0.1776486337184906,
              0.1275636851787567,
              0.2352633774280548,
              0.1294865608215332,
              0.15160560607910156,
              -0.23834514617919922
            ],
            [
              0.05271872878074646,
              -0.08657431602478027,
              -0.05121392011642456,
              0.1465950608253479,
              -0.21184822916984558,
              0.12640875577926636,
              -0.14588716626167297,
              0.08079993724822998,
              -0.18039527535438538,
              -0.18792301416397095,
              0.15864324569702148,
              -0.2236180603504181,
              -0.15081152319908142,
              0.04183456301689148,
              0.0016108453273773193,
              0.1954578459262848
            ],
            [
              -0.21985256671905518,
              -0.025998026132583618,
              0.028026551008224487,
              -0.16766050457954407,
              -0.09445768594741821,
              -0.11224880814552307,
              -0.10051468014717102,
              -0.18480122089385986,
              -0.17936024069786072,
              0.09880411624908447,
              -0.04899510741233826,
              -0.06102666258811951,
              0.2066604495048523,
              -0.1467389166355133,
              -0.03822380304336548,
              0.17694485187530518
            ],
            [
              -0.05962330102920532,
              -0.0005567669868469238,
              0.025633931159973145,
              0.051319241523742676,
              -0.1742333173751831,
              0.1665041744709015,
              -0.1125275194644928,
              -0.037602245807647705,
              0.19291529059410095,
              -0.17479461431503296,
              -0.18649393320083618,
              -0.22844624519348145,
              0.017015308141708374,
              0.13428768515586853,
              0.0230712890625,
              -0.044812530279159546
            ],
            [
              0.041289955377578735,
              -0.1665744185447693,
              0.07960379123687744,
              -0.16666144132614136,
              0.1994372010231018,
              0.11146959662437439,
              -0.06107759475708008,
              0.21068260073661804,
              -0.02464631199836731,
              0.0926298201084137,
              -0.15613800287246704,
              -0.05787527561187744,
              0.14060664176940918,
              -0.21844342350959778,
              0.10610318183898926,
              0.2178257405757904
            ],
            [
              -0.11643725633621216,
              -0.21288907527923584,
              0.0025919675827026367,
              -0.1283724308013916,
              -0.22002676129341125,
              0.05252060294151306,
              0.01428365707397461,
              0.0855146050453186,
              0.01988828182220459,
              -0.03075486421585083,
              0.06717762351036072,
              -0.1757657527923584,
              -0.22026419639587402,
              0.06862035393714905,
              0.1912263035774231,
              0.20598891377449036
            ]
          ]
        },
        "layer_scale_1": {
          "scale": [
            0.10000000149011612,
            0.10000000149011612,
            0.10000000149011612,
            0.10000000149011612,
            0.10000000149011612,
            0.10000000149011612,
            0.10000000149011612,
            0.10000000149011612
          ]
        },
        "layer_scale_2": {
          "scale": [
            0.10000000149011612,
            0.10000000149011612,
            0.10000000149011612,
            0.10000000149011612,
            0.10000000149011612,
            0.10000000149011612,
            0.10000000149011612,
            0.10000000149011612
          ]
        }
      }
    ]
  },
  "decoder_transformer": {
    "input_proj": {
      "kind": "linear",
      "weight": [
        [
          -0.20408356189727783,
          -0.3760680556297302,
          -0.2761040925979614,
          0.10392725467681885
        ],
        [
          -0.28082960844039917,
          -0.16612917184829712,
          -0.10808616876602173,
          -0.13384723663330078
        ],
        [
          0.17958080768585205,
          0.3109864592552185,
          -0.18168306350708008,
          -0.3297465443611145
        ],
        [
          0.19307100772857666,
          0.08578693866729736,
          0.4632183909416199,
          0.11157244443893433
        ],
        [
          -0.00839167833328247,
          -0.43916618824005127,
          0.003143012523651123,
          -0.3930981159210205
        ],
        [
          -0.49690771102905273,
          -0.43765151500701904,
          0.27004140615463257,
          -0.3510112166404724
        ],
        [
          0.23455631732940674,
          0.08191001415252686,
          0.22384214401245117,
          0.27895766496658325
        ],
        [
          -0.23085397481918335,
          -0.09186041355133057,
          -0.00934302806854248,
          -0.1256115436553955
        ]
      ]
    },
    "output_projs": [
      {
        "kind": "linear",
        "weight": [
          [
            0.2853673994541168,
            0.0835452526807785,
            0.08887787908315659,
            -0.17311345040798187,
            0.2786509692668915,
            -0.10155181586742401,
            0.09796946495771408,
            -0.31777697801589966
          ],
          [
            0.3354073166847229,
            0.23510262370109558,
            -0.035893943160772324,
            0.03965891897678375,
            -0.15724891424179077,
            0.013076523318886757,
            0.13850651681423187,
            0.14590854942798615
          ],
          [
            0.07753781229257584,
            -0.1671261191368103,
            -0.2452332079410553,
            -0.19959646463394165,
            0.008968427777290344,
            0.1259712427854538,
            -0.23283600807189941,
            -0.04742957651615143
          ],
          [
            -0.15934108197689056,
            0.1788499802350998,
            0.2572561502456665,
            0.10482325404882431,
            -0.028838811442255974,
            -0.14301162958145142,
            0.2010001242160797,
            0.28617823123931885
          ]
        ]
      }
    ],
    "layers": [
      {
        "self_attn": {
          "in_proj": {
            "weight": [
              [
                0.009984925389289856,
                -0.14345093071460724,
                0.18972918391227722,
                -0.1333066076040268,
                0.08391985297203064,
                -0.2571604549884796,
                0.2402074933052063,
                -0.032148268073797226
              ],
              [
                0.2285367250442505,
                0.10138946771621704,
                -0.09067856520414352,
                0.17587125301361084,
                -0.2745991349220276,
                0.10256081074476242,
                -0.34525614976882935,
                -0.3126981556415558
              ],
              [
                0.05274631455540657,
                0.07143443822860718,
                0.22259052097797394,
                -0.07531945407390594,
                -0.27760186791419983,
                -0.1997249275445938,
                0.024728398770093918,
                0.1330038160085678
              ],
              [
                -0.05334480106830597,
                0.031733669340610504,
                0.27829277515411377,
                -0.2778245210647583,
                -0.020780080929398537,
                0.12464769929647446,
                -0.09032179415225983,
                0.08805137872695923
              ],
              [
                0.31433746218681335,
                0.3196529150009155,
                -0.24800491333007812,
                0.08833764493465424,
                0.039060771465301514,
                -0.03536171093583107,
                0.015877308323979378,
                0.03560236841440201
              ],
              [
                0.05997837707400322,
                -0.05622486397624016,
                0.2655905485153198,
                -0.1986764520406723,
                0.13117481768131256,
                0.1562863290309906,
                0.26722976565361023,
                -0.0977272018790245
              ],
              [
                -0.30183646082878113,
                -0.06519042700529099,
                -0.32334455847740173,
                0.03900665417313576,
                -0.3444152772426605,
                0.13970963656902313,
                0.07327419519424438,
                -0.20336945354938507
              ],
              [
                -0.2793877124786377,
                0.23548755049705505,
                0.271433025598526,
                -0.014050114899873734,
                0.01754758693277836,
                -0.2606857419013977,
                0.3144332766532898,
                0.11216110736131668
              ],
              [
                -0.2311103492975235,
                0.24885623157024384,
                0.0820511057972908,
                0.25306209921836853,
                -0.08078733086585999,
                -0.07871442288160324,
                0.1772027611732483,
                -0.2946476340293884
              ],
              [
                -0.15827620029449463,
                -0.038051437586545944,
                0.14471057057380676,
                0.098099485039711,
                -0.1600542962551117,
                -0.2856890857219696,
                -0.2944897711277008,
                0.1674940586090088
              ],
              [
                -0.30606207251548767,
                -0.060406967997550964,
                -0.2431986927986145,
                0.11836647242307663,
                0.03026430308818817,
                0.011955838650465012,
                0.25961774587631226,
                0.170895516872406
              ],
              [
                0.00981313455849886,
                -0.26821932196617126,
                -0.041020557284355164,
                -0.21861532330513,
                -0.1631387323141098,
                -0.1072394922375679,
                0.05244462937116623,
                -0.3042988181114197
              ],
              [
                0.2831612229347229,
                -0.26527032256126404,
                -0.2761066257953644,
                -0.017961764708161354,
                -0.3241484463214874,
                0.11592161655426025,
                0.22315074503421783,
                -0.17064163088798523
              ],
              [
                0.2990879416465759,
                0.03677228093147278,
                -0.3523566722869873,
                -0.20597206056118011,
                0.34212425351142883,
                -0.33337146043777466,
                -0.27459296584129333,
                0.32309022545814514
              ],
              [
                0.3288409113883972,
                0.09309669584035873,
                -0.21760426461696625,
                0.02185596525669098,
                0.2451610416173935,
                0.21330755949020386,
                -0.11420295387506485,
                -0.12573660910129547
              ],
              [
                -0.11138156056404114,
                0.020148679614067078,
                -0.19672496616840363,
                0.14039279520511627,
                0.02037939243018627,
                0.329573392868042,
                0.32355421781539917,
                0.2333366721868515
              ],
              [
                -0.010430797003209591,
                0.11311935633420944,
                0.14488960802555084,
                0.1282459944486618,
                0.2739276587963104,
                -0.1801200807094574,
                0.1675465703010559,
                0.19906292855739594
              ],
              [
                -0.03989873453974724,
                -0.20757494866847992,
                -0.2122509777545929,
                -0.07467430830001831,
                0.22227400541305542,
                -0.04772304370999336,
                0.20874498784542084,
                -0.17731626331806183
              ],
              [
                0.27745941281318665,
                0.1702083945274353,
                -0.045201271772384644,
                0.20367743074893951,
                0.2993590831756592,
                -0.13597795367240906,
                0.04019296169281006,
                0.22696267068386078
              ],
              [
                0.25593534111976624,
                0.20155587792396545,
                -0.17879703640937805,
                0.16753321886062622,
                -0.11311843246221542,
                -0.0842277780175209,
                0.33386027812957764,
                -0.0489080436527729
              ],
              [
                0.27119478583335876,
                -0.12516948580741882,
                -0.2679268717765808,
                -0.03783446550369263,
                0.22525888681411743,
                0.14256879687309265,
                -0.08309828490018845,
                0.04343447461724281
              ],
              [
                -0.24453739821910858,
                0.009263245388865471,
                0.04068797826766968,
                0.09732246398925781,
                -0.1838141679763794,
                0.2957077622413635,
                0.05586446821689606,
                -0.11119526624679565
              ],
              [
                -0.1503281146287918,
                0.17577815055847168,
                0.2301146239042282,
                0.1841137409210205,
                0.1502009481191635,
                0.06441066414117813,
                -0.047920335084199905,
                0.27874425053596497
              ],
              [
                -0.260539174079895,
                -0.2550051510334015,
                -0.29913008213043213,
                -0.280571311712265,
                -0.08154179900884628,
                -0.2309495061635971,
                -0.030394915491342545,
                -0.2651381492614746
              ]
            ]
          },
          "out_proj": {
            "weight": [
              [
                -0.29923030734062195,
                -0.21537423133850098,
                0.03296561911702156,
                -0.1780162751674652,
                -0.3469260036945343,
                0.26990431547164917,
                -0.2288466840982437,
                -0.04111475497484207
              ],
              [
                0.06713263690471649,
                0.05609842389822006,
                0.3170861303806305,
                -0.03778195008635521,
                0.2456272840499878,
                -0.03173746168613434,
                0.041775282472372055,
                0.22611534595489502
              ],
              [
                -0.23903487622737885,
                -0.34440094232559204,
                -0.05836183577775955,
                -0.28545892238616943,
                -0.050630755722522736,
                -0.3114370107650757,
                0.007140519097447395,
                0.2775680422782898
              ],
              [
                -0.18905356526374817,
                -0.18981756269931793,
                -0.25057435035705566,
                -0.20697815716266632,
                0.06351340562105179,
                0.22563782334327698,
                -0.27121782302856445,
                -0.31347358226776123
              ],
              [
                -0.2897178828716278,
                0.23576967418193817,
                0.09152659773826599,
                0.10362367331981659,
                0.25917521119117737,
                0.22672609984874725,
                0.0783332884311676,
                -0.17365382611751556
              ],
              [
                -0.30747631192207336,
                -0.010759584605693817,
                0.1851302832365036,
                -0.05141742527484894,
                0.26952028274536133,
                0.06021878495812416,
                -0.27657780051231384,
                0.16726899147033691
              ],
              [
                -0.06065782904624939,
                -0.018123818561434746,
                0.06567081809043884,
                0.34870460629463196,
                0.19979751110076904,
                0.14682938158512115,
                -0.20532794296741486,
                0.11678309738636017
              ],
              [
                0.07978874444961548,
                0.27991044521331787,
                -0.2733760476112366,
                -0.08655361086130142,
                -0.19394120573997498,
                -0.1918996125459671,
                0.3100786507129669,
                0.09336576610803604
              ]
            ]
          }
        },
        "norm1": {
          "gamma": [
            1.0,
            1.0,
            1.0,
            1.0,
            1.0,
            1.0,
            1.0,
            1.0
          ],
          "beta": [
            0.0,
            0.0,
            0.0,
            0.0,
            0.0,
            0.0,
            0.0,
            0.0
          ]
        },
        "norm2": {
          "gamma": [
            1.0,
            1.0,
            1.0,
            1.0,
            1.0,
            1.0,
            1.0,
            1.0
          ],
          "beta": [
            0.0,
            0.0,
            0.0,
            0.0,
            0.0,
            0.0,
            0.0,
            0.0
          ]
        },
        "linear1": {
          "weight": [
            [
              0.1487855762243271,
              0.030119065195322037,
              -0.05061271786689758,
              -0.308618426322937,
              0.28382545709609985,
              0.2046782374382019,
              0.23959067463874817,
              -0.0018288360442966223
            ],
            [
              -0.12489843368530273,
              0.21188557147979736,
              0.061815645545721054,
              -0.18123553693294525,
              -0.10794372856616974,
              0.18372143805027008,
              -0.28819769620895386,
              -0.24015256762504578
            ],
            [
              0.13979098200798035,
              -0.049139514565467834,
              -0.1652161031961441,
              0.274636447429657,
              0.3309234380722046,
              -0.0401793047785759,
              0.08205902576446533,
              -0.25672128796577454
            ],
            [
              -0.27112042903900146,
              -0.19110539555549622,
              0.32207199931144714,
              0.20852001011371613,
              -0.3419167101383209,
              0.2589872479438782,
              0.0653097853064537,
              -0.23162786662578583
            ],
            [
              0.04684765264391899,
              -0.13830851018428802,
              -0.24301818013191223,
              -0.15321311354637146,
              0.31700238585472107,
              -0.09637019783258438,
              0.0805049017071724,
              -0.2008575052022934
            ],
            [
              0.29752466082572937,
              -0.26197221875190735,
              -0.3104976713657379,
              0.04091325029730797,
              -0.133714497089386,
              0.2853456139564514,
              0.14182747900485992,
              0.15976138412952423
            ],
            [
              0.14391471445560455,
              0.26714539527893066,
              0.0008205148042179644,
              0.14959147572517395,
              0.2319609522819519,
              0.02457110583782196,
              -0.07964695990085602,
              0.064719058573246
            ],
            [
              -0.3058331608772278,
              0.13651397824287415,
              0.13349027931690216,
              0.04388763755559921,
              -0.3128700852394104,
              0.21401958167552948,
              0.18685126304626465,
              0.30976179242134094
            ],
            [
              -0.043877776712179184,
              -0.18588045239448547,
              0.1582714021205902,
              0.18493206799030304,
              0.1301833987236023,
              -0.25041458010673523,
              -0.02094057761132717,
              -0.044420503079891205
            ],
            [
              -0.12163276970386505,
              0.026290277019143105,
              -0.28748664259910583,
              0.08633305877447128,
              -0.1877395063638687,
              -0.16028134524822235,
              -0.04682004824280739,
              0.2603793442249298
            ],
            [
              0.21919631958007812,
              0.03643464297056198,
              -0.2634432017803192,
              -0.10741887241601944,
              0.32919251918792725,
              -0.07256507128477097,
              -0.3029331564903259,
              -0.12826605141162872
            ],
            [
              -0.024128606542944908,
              0.0921308621764183,
              -0.24899645149707794,
              0.12313791364431381,
              0.31385332345962524,
              0.015595766715705395,
              0.2739962637424469,
              -0.2994506061077118
            ],
            [
              0.21038328111171722,
              0.24723568558692932,
              0.18887381255626678,
              -0.03163643553853035,
              0.06204867362976074,
              -0.07798022776842117,
              0.06032651290297508,
              0.26842308044433594
            ],
            [
              0.07817081362009048,
              0.3446628153324127,
              0.3357582986354828,
              -0.03458254411816597,
              -0.08004192262887955,
              0.09653128683567047,
              -0.30802419781684875,
              0.10224517434835434
            ],
            [
              0.21893849968910217,
              0.2841181755065918,
              -0.024797983467578888,
              -0.19386783242225647,
              0.3318151831626892,
              -0.09455578029155731,
              -0.22759723663330078,
              0.07366177439689636
            ],
            [
              -0.3243297338485718,
              0.2203880101442337,
              0.10821413993835449,
              0.20979483425617218,
              0.07213007658720016,
              0.1600961536169052,
              -0.2806893587112427,
              -0.32477325201034546
            ]
          ]
        },
        "linear2": {
          "weight": [
            [
              -0.1963745653629303,
              -0.17616209387779236,
              0.03287675976753235,
              0.019168555736541748,
              0.15331238508224487,
              -0.06926575303077698,
              -0.1235102117061615,
              0.06094813346862793,
              -0.06432661414146423,
              -0.2423030436038971,
              -0.14491575956344604,
              -0.012455850839614868,
              0.024072080850601196,
              0.002092689275741577,
              0.23657411336898804,
              -0.0034178495407104492
            ],
            [
              -0.04046639800071716,
              0.038454800844192505,
              0.12176746129989624,
              -0.13450700044631958,
              0.1793641448020935,
              -0.1827331781387329,
              0.15396615862846375,
              -0.10284781455993652,
              0.016535431146621704,
              0.16533219814300537,
              -0.03555580973625183,
              -0.1483784019947052,
              -0.07810068130493164,
              -0.08438363671302795,
              -0.016815483570098877,
              -0.15213418006896973
            ],
            [
              -0.0658467710018158,
              -0.06780725717544556,
              0.23150113224983215,
              0.21880340576171875,
              0.03548833727836609,
              0.018472284078598022,
              0.2227822244167328,
              0.2477213442325592,
              -0.13110846281051636,
              0.00388413667678833,
              0.17077887058258057,
              -0.1421506702899933,
              0.13187861442565918,
              0.045506447553634644,
              0.19991856813430786,
              -0.03232169151306152
            ],
            [
              -0.09798029065132141,
              0.19368743896484375,
              -0.17320773005485535,
              0.19743609428405762,
              -0.0818319022655487,
              0.1755709946155548,
              -0.08980825543403625,
              0.23640838265419006,
              0.014245301485061646,
              -0.13694244623184204,
              0.1637784242630005,
              0.09818282723426819,
              0.2010003924369812,
              0.14244484901428223,
              -0.02387264370918274,
              0.1722162365913391
            ],
            [
              -0.033659785985946655,
              0.248078852891922,
              0.1822269856929779,
              0.16864722967147827,
              -0.05259564518928528,
              -0.01470327377319336,
              0.061895549297332764,
              0.09847795963287354,
              -0.11919835209846497,
              -0.009161978960037231,
              0.008264988660812378,
              -0.07912459969520569,
              0.021200031042099,
              -0.15594452619552612,
              0.2288931906223297,
              -0.1452200710773468
            ],
            [
              0.04334935545921326,
              -0.025808751583099365,
              -0.13877174258232117,
              -0.2223404347896576,
              0.19137728214263916,
              -0.18306240439414978,
              0.00796768069267273,
              -0.06847521662712097,
              0.11245232820510864,
              0.002726048231124878,
              0.18136930465698242,
              0.056366562843322754,
              -0.0013528764247894287,
              -0.2092008888721466,
              -0.24868178367614746,
              -0.24929144978523254
            ],
            [
              0.1077263355255127,
              -0.22273877263069153,
              -0.02788490056991577,
              -0.21306678652763367,
              -0.238392174243927,
              0.05697175860404968,
              0.034381479024887085,
              -0.14951658248901367,
              0.20239326357841492,
              -0.1460828185081482,
              -0.0018682777881622314,
              0.2344856858253479,
              0.18802091479301453,
              -0.14821457862854004,
              -0.10300278663635254,
              0.0823540985584259
            ],
            [
              -0.19719675183296204,
              0.20730358362197876,
              -0.23255911469459534,
              0.07082685828208923,
              0.041240423917770386,
              -0.033922553062438965,
              0.2253924310207367,
              -0.0650777518749237,
              -0.2258012294769287,
              -0.15675315260887146,
              0.09360113739967346,
              0.16803142428398132,
              0.2102927565574646,
              0.15564188361167908,
              -0.011367887258529663,
              -0.05511617660522461
            ]
          ]
        },
        "layer_scale_1": {
          "scale": [
            0.10000000149011612,
            0.10000000149011612,
            0.10000000149011612,
            0.10000000149011612,
            0.10000000149011612,
            0.10000000149011612,
            0.10000000149011612,
            0.10000000149011612
          ]
        },
        "layer_scale_2": {
          "scale": [
            0.10000000149011612,
            0.10000000149011612,
            0.10000000149011612,
            0.10000000149011612,
            0.10000000149011612,
            0.10000000149011612,
            0.10000000149011612,
            0.10000000149011612
          ]
        }
      }
    ]
  },
  "audio_input": [
    [
      [
        -0.8004198670387268,
        -0.02650170959532261,
        -0.29028788208961487,
        -0.8981282711029053,
        0.7855421304702759,
        0.4596913456916809,
        -0.11354850977659225
      ]
    ]
  ],
  "latent_output": [
    [
      [
        -0.07634995877742767,
        0.002119053155183792,
        -0.02634207345545292,
        -0.0003200685605406761
      ],
      [
        0.010928306728601456,
        0.0014229090884327888,
        0.03961201012134552,
        0.03417937457561493
      ],
      [
        0.07622577995061874,
        0.047172170132398605,
        0.042599812150001526,
        0.007219753228127956
      ],
      [
        0.06094243749976158,
        -0.005697760730981827,
        -0.021223798394203186,
        0.005635409615933895
      ]
    ]
  ],
  "latent_input": [
    [
      [
        0.06819523870944977,
        0.7433921098709106,
        0.9533390402793884,
        -0.24756059050559998
      ],
      [
        0.4964095652103424,
        0.09497308731079102,
        1.4230705499649048,
        0.8140450716018677
      ],
      [
        1.2375900745391846,
        -0.9238936305046082,
        0.9211964011192322,
        0.11134596914052963
      ],
      [
        -0.09110762923955917,
        0.11792614310979843,
        1.334852695465088,
        0.04519236460328102
      ]
    ]
  ],
  "audio_output": [
    [
      [
        0.023930368945002556,
        -0.16924487054347992,
        -0.3020620346069336,
        -0.27801263332366943,
        -0.29164397716522217,
        -0.30706626176834106,
        -0.31094682216644287,
        -0.2803691029548645
      ]
    ]
  ]
}